<?xml version="1.0"?>
<opencv_storage>
<stage2>
  <maxWeakCount>6</maxWeakCount>
  <stageThreshold>-9.5457863807678223e-01</stageThreshold>
  <weakClassifiers>
    <_>
      <internalNodes>
        0 -1 125220 6.2457706779241562e-02</internalNodes>
      <leafValues>
        -6.0200250148773193e-01 6.8485420942306519e-01</leafValues></_>
    <_>
      <internalNodes>
        0 -1 189999 -6.2477923929691315e-03</internalNodes>
      <leafValues>
        7.1823507547378540e-01 -5.1553553342819214e-01</leafValues></_>
    <_>
      <internalNodes>
        0 -1 3444 1.7462627962231636e-02</internalNodes>
      <leafValues>
        -6.5053385496139526e-01 4.7948813438415527e-01</leafValues></_>
    <_>
      <internalNodes>
        0 -1 178694 4.1631292551755905e-03</internalNodes>
      <leafValues>
        -4.3828365206718445e-01 6.1415755748748779e-01</leafValues></_>
    <_>
      <internalNodes>
        0 -1 80258 -8.5292467847466469e-03</internalNodes>
      <leafValues>
        5.4249948263168335e-01 -4.3619906902313232e-01</leafValues></_>
    <_>
      <internalNodes>
        0 -1 119105 2.0216389093548059e-03</internalNodes>
      <leafValues>
        -4.2074456810951233e-01 5.7833689451217651e-01</leafValues></_></weakClassifiers></stage2>
</opencv_storage>
